<?xml version="1.0"?>
<opencv_storage>
<!-- Created using Computer Vision System Toolbox(tm) for MATLAB(R) -->
<!-- Version 9.2.0.538062 (R2017a) -->
<!-- Compatible with OpenCV 3.1 -->
<cascade>
  <stageType>BOOST</stageType>
  <featureType>HOG</featureType>
  <height>56</height>
  <width>32</width>
  <stageParams>
    <boostType>GAB</boostType>
    <minHitRate>9.9500000476837158e-01</minHitRate>
    <maxFalseAlarm>1.0000000149011612e-01</maxFalseAlarm>
    <weightTrimRate>9.4999999999999996e-01</weightTrimRate>
    <maxDepth>1</maxDepth>
    <maxWeakCount>100</maxWeakCount></stageParams>
  <featureParams>
    <maxCatCount>0</maxCatCount>
    <featSize>36</featSize></featureParams>
  <stageNum>5</stageNum>
  <stages>
    <!-- stage 0 -->
    <_>
      <maxWeakCount>1</maxWeakCount>
      <stageThreshold>1.</stageThreshold>
      <weakClassifiers>
        <_>
          <internalNodes>
            0 -1 2 1.4410787262022495e-02</internalNodes>
          <leafValues>
            1. -1.</leafValues></_></weakClassifiers></_>
    <!-- stage 1 -->
    <_>
      <maxWeakCount>1</maxWeakCount>
      <stageThreshold>1.</stageThreshold>
      <weakClassifiers>
        <_>
          <internalNodes>
            0 -1 5 1.1673528701066971e-02</internalNodes>
          <leafValues>
            1. -1.</leafValues></_></weakClassifiers></_>
    <!-- stage 2 -->
    <_>
      <maxWeakCount>2</maxWeakCount>
      <stageThreshold>5.4054055362939835e-02</stageThreshold>
      <weakClassifiers>
        <_>
          <internalNodes>
            0 -1 0 4.3439667671918869e-02</internalNodes>
          <leafValues>
            -9.4594591856002808e-01 1.</leafValues></_>
        <_>
          <internalNodes>
            0 -1 6 4.5317895710468292e-02</internalNodes>
          <leafValues>
            -8.9999872446060181e-01 1.</leafValues></_></weakClassifiers></_>
    <!-- stage 3 -->
    <_>
      <maxWeakCount>3</maxWeakCount>
      <stageThreshold>-6.9509685039520264e-01</stageThreshold>
      <weakClassifiers>
        <_>
          <internalNodes>
            0 -1 9 6.0424465686082840e-02</internalNodes>
          <leafValues>
            -8.3783781528472900e-01 7.6470589637756348e-01</leafValues></_>
        <_>
          <internalNodes>
            0 -1 7 9.2738317325711250e-03</internalNodes>
          <leafValues>
            8.6604964733123779e-01 -8.1384187936782837e-01</leafValues></_>
        <_>
          <internalNodes>
            0 -1 4 6.3941940665245056e-02</internalNodes>
          <leafValues>
            -7.2330862283706665e-01 9.0526735782623291e-01</leafValues></_></weakClassifiers></_>
    <!-- stage 4 -->
    <_>
      <maxWeakCount>3</maxWeakCount>
      <stageThreshold>6.4048987627029419e-01</stageThreshold>
      <weakClassifiers>
        <_>
          <internalNodes>
            0 -1 1 7.2241097688674927e-02</internalNodes>
          <leafValues>
            -8.3783781528472900e-01 7.6470589637756348e-01</leafValues></_>
        <_>
          <internalNodes>
            0 -1 8 6.2171325087547302e-02</internalNodes>
          <leafValues>
            -8.5705512762069702e-01 8.7070780992507935e-01</leafValues></_>
        <_>
          <internalNodes>
            0 -1 3 4.0384937077760696e-02</internalNodes>
          <leafValues>
            7.3283910751342773e-01 -9.5507669448852539e-01</leafValues></_></weakClassifiers></_></stages>
  <features>
    <_>
      <rect>
        0 4 8 8 1</rect></_>
    <_>
      <rect>
        4 4 8 8 1</rect></_>
    <_>
      <rect>
        8 40 8 8 13</rect></_>
    <_>
      <rect>
        16 40 8 8 26</rect></_>
    <_>
      <rect>
        0 16 8 16 25</rect></_>
    <_>
      <rect>
        4 24 8 16 4</rect></_>
    <_>
      <rect>
        12 0 8 16 15</rect></_>
    <_>
      <rect>
        12 0 8 16 33</rect></_>
    <_>
      <rect>
        16 4 8 16 16</rect></_>
    <_>
      <rect>
        16 16 8 16 27</rect></_></features></cascade>
</opencv_storage>
